tree
version=v3
num_class=1
num_tree_per_iteration=1
label_index=0
max_feature_idx=10
objective=regression
feature_names=mean_cloud_annual intra_cloud_annual elevation forest_prob sveg_prob cropland_prob builup_prob snow_prob water_prob var_snow_lt_p90 direct_normal_irradiation
feature_infos=[5.8039917459589585:99.819911497036003] [0.23576605159889799:35.883970152935369] [-70.599998474121094:6242.1829467844482] [0:1] [0:0.98155403136470842] [0:0.92393884538040238] [0:1] [0:1] none [0:100] [0.73854118738246566:10.097336709317712]
tree_sizes=2683 2825 2829 2841 2847 2809 2818 2817 2826 2816 2838

Tree=0
num_leaves=31
num_cat=0
split_feature=9 9 1 1 2 7 10 10 3 4 2 3 10 2 2 4 7 3 2 10 2 10 1 4 4 10 3 3 2 3
split_gain=2.43938 1.54853 1.31614 1.11335 1.07205 1.00257 0.883906 0.714815 0.782906 0.596163 0.629416 1.00884 0.585125 0.537795 0.450859 0.695853 0.506531 0.481027 0.418022 0.414904 0.579275 0.471798 0.40018 0.382487 0.37393 0.360293 0.333947 0.409457 0.425687 0.348843
threshold=95.157903763900478 0.039606932813969882 9.6187629287915737 17.957972947122229 1.5406987147756779 0.076238705269780507 3.0507551805858664 7.1503028696204165 0.75875112416580148 8.6845426719828946e-05 295.36298988132074 0.53066608512395741 3.0764178755950833 1442.6118530413657 476.49032180539422 0.014487747075239019 0.0021402572940508956 0.00019298983715517541 726.25946316648776 4.2028942700465128 221.16358490177629 5.0383470164403272 4.5789824971546329 5.7896951146552627e-06 0.013343317340908831 2.3758776316218291 0.059591401916775068 0.16747465078488968 155.5522521855309 0.64088065122490667
decision_type=10 10 2 2 10 2 8 8 2 2 10 2 8 10 10 2 2 2 10 10 10 10 2 2 2 10 2 2 10 2
left_child=1 4 5 9 -1 13 -6 8 14 10 11 -4 -11 22 15 17 -17 -8 -5 -10 -21 -22 -3 -23 -14 -24 -27 28 -28 -29
right_child=-2 2 3 18 6 -7 7 -9 19 12 -12 -13 24 -15 -16 16 -18 -19 -20 20 21 23 25 -25 -26 26 27 29 -30 -31
leaf_value=0.4247385894069074 0.42182499951528019 0.44944647947804417 0.42440012238826463 0.43807123502364448 0.42873498971960278 0.43362619499487565 0.43653935135199157 0.44348591392267955 0.43939069119861413 0.4313793503076031 0.43683156060821582 0.4352886385990643 0.44450350852105891 0.43585243533279544 0.43469702152039535 0.43922484044797783 0.43046027238464324 0.4432981643288405 0.44734292698266531 0.425599222731677 0.42773547111472182 0.43870081821062612 0.43732341001766961 0.43127043545151067 0.43798768759996498 0.44764048507874171 0.44400240559909826 0.44625321103317162 0.43465498923359458 0.44007817467156329
leaf_weight=23 26 23 36 20 41 37 39 33 21 25 87 52 31 28 102 32 34 81 31 29 25 43 29 29 76 36 21 66 29 35
leaf_count=23 26 23 36 20 41 37 39 33 21 25 87 52 31 28 102 32 34 81 31 29 25 43 29 29 76 36 21 66 29 35
internal_value=0.437105 0.437306 0.43892 0.436866 0.435297 0.44134 0.435775 0.436391 0.435853 0.435729 0.433816 0.430834 0.438266 0.442408 0.437368 0.438833 0.43471 0.441102 0.443707 0.432884 0.4318 0.433653 0.443177 0.435708 0.439875 0.442509 0.443313 0.442281 0.438581 0.444113
internal_weight=0 1194 662 358 532 304 509 468 435 307 175 88 132 267 288 186 66 120 51 147 126 97 239 72 107 216 187 151 50 101
internal_count=1220 1194 662 358 532 304 509 468 435 307 175 88 132 267 288 186 66 120 51 147 126 97 239 72 107 216 187 151 50 101
shrinkage=1


Tree=1
num_leaves=31
num_cat=0
split_feature=9 9 1 1 2 10 10 3 5 2 3 2 2 10 10 10 3 0 10 0 1 1 1 10 2 10 2 4 1 4
split_gain=2.20154 1.39755 1.18782 1.01065 0.967522 0.797725 0.64512 0.706572 0.582577 0.931878 0.788322 0.67922 0.531146 0.419127 0.729777 0.724462 0.511711 0.418843 0.400654 0.448362 0.375658 0.374684 0.472454 0.374451 0.522795 0.425797 0.374135 0.345194 0.34224 0.29633
threshold=95.157903763900478 0.039606932813969882 9.6187629287915737 16.110550977843232 1.5406987147756779 3.0507551805858664 7.1503028696204165 0.75875112416580148 0.0032827571300095338 268.37531127548681 0.45050582636318376 100.68937640795077 516.19369869696118 2.6179652573099732 3.4120777285692792 4.2793479600500186 0.16747465078488968 41.38373345771101 3.7339456290766688 65.887783705371035 6.3927721413428982 11.424930406005606 13.613038650977911 4.2028942700465128 221.16358490177629 5.0383470164403272 251.30020060055568 5.7896951146552627e-06 6.6989216627073072 0.48135525183243855
decision_type=10 10 2 2 10 8 8 2 2 10 2 10 10 10 10 10 2 2 10 2 2 2 2 10 10 10 10 2 2 2
left_child=1 4 13 8 -1 -6 7 17 9 10 -4 -12 -5 16 26 28 -3 -7 19 -19 -18 -11 -23 -9 -25 -26 -15 -27 -16 -20
right_child=-2 2 3 12 5 6 -8 23 -10 21 11 -13 -14 14 15 -17 20 18 29 -21 -22 22 -24 24 25 27 -28 -29 -30 -31
leaf_value=-0.011747719848568997 -0.014515630471018646 -0.0044421374717534615 -0.011326688478390377 0.00052358411834575237 -0.0079511396655040558 -0.0047941647971230048 0.0060622382372843495 0.0021717766743330731 0.0025060311538254612 -0.0034579631739429066 -0.0074724820352369747 0.0034858657047152522 0.0085742021933020579 0.0062194898057813669 0.0020625409260392187 0.0053748647652735772 -0.00041367967443710026 -0.0080544306092302908 0.0031115178694364164 0.00036972039794948487 0.0089356308714264917 0.0063633443183592851 -0.0020046678041258166 -0.010930118160643454 -0.0089006824046373358 0.0015163971920670984 0.013460733173415066 -0.0055424658645843641 -0.006388729146641234 -0.0029807611439458055
leaf_weight=23 26 29 45 40 41 36 33 21 64 42 31 26 42 44 25 110 22 22 151 56 21 37 31 29 25 43 30 29 23 23
leaf_count=23 26 29 45 40 41 36 33 21 64 42 31 26 42 44 25 110 22 22 151 56 21 37 31 29 25 43 30 29 23 23
internal_value=0 0.000191379 0.00172486 -0.00022683 -0.00171683 -0.00126356 -0.000677686 -0.00118899 -0.00167487 -0.00293703 -0.00637956 -0.00247394 0.00464707 0.00402323 0.00505749 0.00313834 0.000690629 0.00025069 0.000971383 -0.00200632 0.00415226 0.000255133 0.00254852 -0.00400959 -0.00503982 -0.0032788 0.00915513 -0.00132676 -0.00198703 0.00230622
internal_weight=0 1194 662 358 532 509 468 435 276 212 102 57 82 304 232 158 72 288 252 78 43 110 68 147 126 97 74 72 48 174
internal_count=1220 1194 662 358 532 509 468 435 276 212 102 57 82 304 232 158 72 288 252 78 43 110 68 147 126 97 74 72 48 174
shrinkage=0.05


Tree=2
num_leaves=31
num_cat=0
split_feature=6 2 1 0 0 10 5 3 0 3 4 7 3 3 3 3 5 5 10 10 0 5 10 10 4 1 1 7 3 2
split_gain=1.76838 1.16764 1.0319 1.19198 0.756809 0.696971 0.644917 0.745119 0.551367 0.693563 0.642086 0.445294 0.719814 0.569042 0.50937 0.756431 0.40987 0.521621 0.707818 0.943561 0.485944 0.424638 0.389573 0.635743 0.385413 0.353973 0.375593 0.445222 0.401471 0.437147
threshold=0.58432497944658246 1.5406987147756779 9.4362152428809853 16.981996872570807 73.986429612754691 7.1503028696204165 1.0000000180025095e-35 0.027155599986104739 72.67060190830135 0.16747465078488968 2.1228882087069298e-05 0.00249728849278797 0.25338600669288763 0.45050582636318376 0.8154746971024508 0.91561133390715665 0.014095977705814016 2.8948475573276314e-05 3.5968039100688904 5.6158167308259364 59.466728321319181 0.36808951640606608 4.1430876813929745 4.5068867624845206 0.014487747075239019 25.604089068304461 22.131558255625183 0.25144066913436341 0.53066608512395741 268.37531127548681
decision_type=2 10 2 2 2 10 2 2 2 2 2 2 2 2 2 2 2 2 10 10 2 2 8 8 2 2 2 2 2 10
left_child=1 -1 3 -3 5 6 22 -8 16 10 -10 14 24 -14 -9 -16 17 18 -5 20 -20 -18 -4 -24 -13 26 27 28 29 -25
right_child=-2 2 4 8 -6 -7 7 11 9 -11 -12 12 13 -15 15 -17 21 -19 19 -21 -22 -23 23 25 -26 -27 -28 -29 -30 -31
leaf_value=-0.0095581080663638823 -0.012315238837016233 -0.0095598490163683898 0.00044499354650421696 0.010049035065943221 -0.0098512529903514827 0.0083255559036677536 0.0099426085595041517 0.0029625218752595897 0.00037594280595210598 0.0043903504875866138 -0.011540424637496473 -0.00077942503669943953 0.0088748979009687905 -0.0021676365701880839 -0.010322273168712856 0.0026116992920064011 0.011033143284213212 0.00073029834235337774 -0.005267769536551308 0.0088380624087423931 0.0044059867039322855 0.0026474811969539867 -0.011041621762948733 -0.01162030242010951 -0.0085254051633888769 0.003870316064567305 -0.0089742292805264409 0.0045260723946349965 -0.0016137422196701304 -0.0017027417756617072
leaf_weight=30 29 20 96 48 22 22 21 159 26 37 20 26 20 28 20 26 36 130 34 36 21 26 24 25 42 20 24 21 111 20
leaf_count=30 29 20 96 48 22 22 21 159 26 37 20 26 20 28 20 26 36 130 34 36 21 26 24 25 42 20 24 21 111 20
internal_value=0 0.000181097 0.000432756 0.00236204 -0.000718974 -0.000433995 -0.000716147 0.000818031 0.00293797 -0.000705916 -0.00480509 0.000221096 -0.00225455 0.00243342 0.00162195 -0.00301177 0.0038517 0.003007 0.0051363 0.00254496 -0.00157415 0.00751658 -0.00225482 -0.00331271 -0.00556371 -0.00247337 -0.00310459 -0.0023087 -0.00322877 -0.0072125
internal_weight=0 1191 1161 434 727 705 683 342 414 83 46 321 116 48 205 46 331 269 139 91 55 62 341 245 68 221 201 177 156 45
internal_count=1220 1191 1161 434 727 705 683 342 414 83 46 321 116 48 205 46 331 269 139 91 55 62 341 245 68 221 201 177 156 45
shrinkage=0.05


Tree=3
num_leaves=31
num_cat=0
split_feature=9 9 10 2 10 7 3 2 10 3 5 4 3 9 5 9 0 0 10 10 2 4 3 4 4 9 3 9 7 0
split_gain=1.81537 1.19027 0.928551 0.795556 0.692139 0.675179 0.70578 0.626523 0.54813 0.537577 0.477618 0.479836 0.457436 0.449458 0.687926 0.676365 0.983457 0.556693 0.798758 0.700434 0.409235 0.582691 0.503311 0.398208 0.745009 0.389165 0.374697 0.371825 0.371505 0.338576
threshold=95.157903763900478 0.039606932813969882 2.3758776316218291 1.5406987147756779 2.9104423016276355 0.079264785916373662 0.020238844222463252 382.37333888036778 7.4829197676576751 0.55832731848340877 0.0031746828212026361 0.54077682269251703 0.64088065122490667 1.0009023333374634 3.6668069059483333e-05 56.319319602081713 63.344094433881175 64.923007402160096 3.6012170015801539 4.5186925852482531 476.49032180539422 0.014487747075239019 0.00019298983715517541 5.7896951146552627e-06 0.034620446887266919 68.617914164074705 0.82352430321019299 74.365830502324926 0.0021402572940508956 59.591636594562395
decision_type=10 10 10 10 8 2 2 10 8 2 2 2 2 10 2 10 2 2 10 10 10 2 2 2 2 10 2 10 2 2
left_child=1 3 7 -1 -5 6 -4 9 12 25 13 29 20 14 -8 17 -17 18 -15 -20 21 22 -6 -14 -25 -3 -21 -11 -23 -12
right_child=-2 2 5 4 8 -7 10 -9 -10 27 11 -13 23 15 -16 16 -18 -19 19 26 -22 28 -24 24 -26 -27 -28 -29 -30 -31
leaf_value=-0.010682428387277154 -0.013180512025092656 -0.0043035113889920082 0.010744757336917623 -0.0081780556518810266 -0.00087766399800141403 -0.0030370736533465487 0.010140916687669234 0.0026547229830540865 0.0068399090360364194 0.0050869781663641332 0.0040061436702099667 -0.0014829815580294683 -0.00056103985989466312 0.0093508071731775999 -0.0010574382264167072 -0.0030600140647341809 0.010006701757407024 -0.0066400275040322393 -0.0079340480640530588 0.0070109028322622186 -0.0024790080280001079 0.0016450599751745662 0.005950021142319812 -0.0084747735561142047 0.0010184921444423738 -0.012920269705355168 -0.001370962681248784 -0.0043327278288250622 -0.0060997796172159724 0.0090246508362556432
leaf_weight=23 26 38 29 33 41 48 32 51 23 20 89 26 84 20 24 24 36 39 30 20 94 30 79 62 31 20 40 22 32 54
leaf_count=23 26 38 29 33 41 48 32 51 23 20 89 26 84 20 24 24 36 39 30 20 94 30 79 62 31 20 40 22 32 54
internal_value=0 0.000174465 0.00158966 -0.00158655 -0.00117554 0.0026076 0.00319279 -0.00185515 -0.000690068 -0.00415519 0.00268817 0.00476521 -0.00107239 0.00136357 0.00534162 0.000297675 0.00478002 -0.00150729 0.000312493 -0.00169602 0.000199998 0.00158366 0.00361723 -0.00305644 -0.00531035 -0.00727481 0.00142299 0.000152846 -0.00235228 0.00590124
internal_weight=0 1194 662 532 509 511 463 151 476 100 434 169 453 265 56 209 60 149 110 90 276 182 120 177 93 58 60 42 62 143
internal_count=1220 1194 662 532 509 511 463 151 476 100 434 169 453 265 56 209 60 149 110 90 276 182 120 177 93 58 60 42 62 143
shrinkage=0.05


Tree=4
num_leaves=31
num_cat=0
split_feature=9 9 1 2 1 7 4 3 5 2 2 1 4 0 4 5 0 5 2 0 7 4 3 5 9 7 0 2 2 1
split_gain=1.63837 1.07421 0.924545 0.71799 0.709455 0.649556 0.51621 0.421315 0.398989 0.388357 0.363292 0.360948 0.653008 0.567889 0.471408 0.352299 0.345463 0.340445 0.333861 0.327123 0.468988 0.311239 0.586237 0.304748 0.423599 0.312002 0.301979 0.442466 0.304139 0.284759
threshold=95.157903763900478 0.039606932813969882 7.4768618931030622 1.5406987147756779 17.957972947122229 0.00095143989717501483 5.7896951146552627e-06 0.87594227287991033 0.02052253928308136 295.36298988132074 66.384636027242593 11.682527568476818 0.001217765872449157 63.477292339415662 0.15620018449828435 0.20189052844477215 73.601917433897697 0.0090357841756053131 726.25946316648776 46.106423072335417 0.00019491973552672717 1.0000000180025095e-35 0.78186165716513389 0.0002836950606181079 3.8443027912219079 9.8424816949139473e-05 62.085045741263862 538.6408116906241 90.756623803838636 19.7380548817079
decision_type=10 10 2 10 2 2 2 2 2 10 10 2 2 2 2 2 2 2 10 2 2 2 2 2 10 2 2 10 10 2
left_child=1 3 5 -1 8 -3 10 16 9 11 -5 12 13 -4 -14 -10 19 -7 -6 20 -8 22 -13 24 -11 -25 27 28 -21 -9
right_child=-2 2 4 6 18 17 7 29 15 23 -12 21 14 -15 -16 -17 -18 -19 -20 26 -22 -23 -24 25 -26 -27 -28 -29 -30 -31
leaf_value=-0.01014830690363179 -0.012521486322489532 0.0078962596331257386 -0.0014269001509195993 0.0066319212438943594 0.00087285820394754408 -6.8121621201575646e-05 0.00034855739213526251 -0.009175142962485552 0.0079787227064371108 0.0082829587923532177 -1.8375676672034598e-06 -0.012326122115233117 -0.010754518102233608 0.0084398348517715945 -0.00049659266757468392 0.00020735630832080331 -0.0071132096610963345 0.0059009214229364367 0.0091588041039123644 7.8636301415307194e-05 -0.0096429322127495783 -0.0004613505757373312 -0.0015528222303027694 0.0011529287024001991 0.00067691981553211125 -0.0064534845296293497 -0.0028059047983131479 -0.0029437165142911855 0.0068388432071248943 -0.0019157467558133332
leaf_weight=23 26 80 35 23 20 71 24 35 25 22 201 28 21 25 24 35 25 36 31 28 23 23 23 28 109 26 54 33 41 22
leaf_count=23 26 80 35 23 20 71 24 35 25 22 201 28 21 25 24 35 25 36 31 28 23 23 23 28 109 26 54 33 41 22
internal_value=0 0.000165742 0.00151018 -0.00150722 0.000337769 0.00448822 -0.00111676 -0.00252841 -0.000332405 -0.000955125 0.000679307 -0.00261545 -0.000730559 0.00268424 -0.00528362 0.00344543 -0.00156719 0.00194015 0.00590941 -0.000884183 -0.00454089 -0.00528996 -0.00746758 0.000651355 0.00195427 -0.00250942 0.000217518 0.00181815 0.00409557 -0.00637327
internal_weight=0 1194 662 532 475 187 509 285 424 364 224 179 105 60 45 60 228 107 51 203 47 74 51 185 131 54 156 102 69 57
internal_count=1220 1194 662 532 475 187 509 285 424 364 224 179 105 60 45 60 228 107 51 203 47 74 51 185 131 54 156 102 69 57
shrinkage=0.05


Tree=5
num_leaves=31
num_cat=0
split_feature=9 9 10 1 1 1 1 1 10 7 9 9 3 9 10 1 1 1 1 7 7 9 2 2 0 3 2 2 3 2
split_gain=1.52613 1.19255 1.21444 0.843904 0.74984 0.658153 0.91977 0.799949 0.692244 0.686372 0.685631 0.644525 0.583993 0.515588 0.506701 0.456092 0.45236 0.444038 0.435226 0.537613 0.603022 0.342066 0.49086 0.299945 0.496117 0.565947 0.478669 0.434702 0.451007 0.409466
threshold=87.803067441827906 0.039606932813969882 2.3758776316218291 7.3035249473469781 10.146614911881509 9.4362152428809853 14.885666954071899 13.382309097086782 3.4120777285692792 0.002441321440012969 2.7010433758653449 44.38255281459427 0.13923830771071596 43.568012554266325 2.9532626672009266 5.7131831418879129 6.1960593422400043 11.001939697203136 9.7884572083369417 0.031194877277762555 0.0010421451206379475 32.893196619916544 268.37531127548681 120.97847836137333 28.549990204935341 0.75875112416580148 184.79369035389482 872.5637201293606 0.9633589495177185 27.830939307511247
decision_type=10 10 10 2 2 2 2 2 10 2 10 10 2 10 10 2 2 2 2 2 2 10 10 8 2 2 10 10 2 10
left_child=1 3 13 16 -5 8 7 11 -4 15 -8 21 -11 -3 -6 -10 -1 -13 -15 20 -20 22 -7 29 -25 26 -26 28 -27 -16
right_child=-2 2 5 4 14 6 10 -9 9 12 -12 17 -14 18 23 -17 -18 -19 19 -21 -22 -23 -24 24 25 27 -28 -29 -30 -31
leaf_value=-0.0033979120305351294 -0.010011725566398941 -0.008770130926536189 0.0081095789491923333 0.0038866851465794946 -0.0087793622651825779 -0.0034226872182140746 -0.00041767973984990807 -0.0080161491847213582 0.01036278642232305 -0.0086980139650404461 0.0085032009453113594 -0.0085257713468028951 0.0020123956219426221 0.0043199440214916002 -0.0035121282795444134 0.0028398590783278149 -0.010467326278431398 0.0011259031312709506 -0.0041992021033600453 -0.0083585781912351477 0.0069367070123553289 0.0085000335492871025 0.0052371363090868627 0.0044534347851627638 -0.0072435699962079521 -0.014227174459533257 0.00031576022377613098 -0.00031483370722049759 -0.0045829722082190638 0.0054107822930543788
leaf_weight=72 38 27 90 76 23 30 35 34 29 20 56 26 35 28 20 66 33 22 31 29 20 22 36 28 25 22 129 21 27 36
leaf_count=72 38 27 90 76 23 30 35 34 29 20 56 26 35 28 20 66 33 22 31 29 20 22 36 28 25 22 129 21 27 36
internal_value=0 0.000172916 0.00161884 -0.00162319 -0.000592141 0.002753 0.0010152 -0.00115642 0.00464286 0.00256283 0.00507209 0.000558506 -0.0018823 -0.00259019 -0.00162051 0.00513633 -0.00561973 -0.00410209 -0.0010452 -0.002923 0.000167821 0.00310065 0.00130085 -0.00108592 -0.00182147 -0.00260583 -0.000911404 -0.00633357 -0.00891302 0.00222403
internal_weight=0 1148 636 512 407 501 261 170 240 150 91 136 55 135 331 95 105 48 108 80 51 88 66 308 252 224 154 70 49 56
internal_count=1186 1148 636 512 407 501 261 170 240 150 91 136 55 135 331 95 105 48 108 80 51 88 66 308 252 224 154 70 49 56
shrinkage=0.05


Tree=6
num_leaves=31
num_cat=0
split_feature=9 9 10 1 1 9 2 10 1 1 1 9 1 2 5 7 2 9 10 1 4 4 10 0 10 10 1 2 2 2
split_gain=1.37733 1.07628 1.09955 0.761623 0.681568 0.628761 0.621117 0.6704 0.586234 0.599986 0.931203 0.618782 0.517078 0.499197 0.486826 0.67302 0.563264 0.432824 0.770235 0.408255 0.328503 0.32296 0.303245 0.558836 0.341333 0.459714 0.300906 0.304085 0.28494 0.581115
threshold=87.803067441827906 0.039606932813969882 2.2462928812355174 7.3035249473469781 12.742051189568196 57.380044325539863 155.5522521855309 3.5813736061314585 7.7880325681600615 14.885666954071899 13.382309097086782 2.7010433758653449 9.7884572083369417 420.53299756228512 0.0038617266414750599 0.0022290326191422767 100.68937640795077 12.128544375202937 3.7511162271126759 6.1960593422400043 0.19670875131715568 0.0056314434481880187 2.9104423016276355 64.923007402160096 4.0086202053901099 5.076816378498676 28.329636177031194 257.0882309142923 770.65195165186537 197.30628785493226
decision_type=10 10 10 2 2 10 8 10 2 2 2 10 2 10 2 2 10 10 8 2 2 2 10 2 10 10 2 10 10 8
left_child=1 3 5 19 28 -3 -6 -8 17 10 14 -11 -7 -14 16 -16 -10 20 -19 -1 21 -4 -18 24 -24 -26 27 -9 29 -5
right_child=-2 2 8 4 6 12 7 26 9 11 -12 -13 13 -15 15 -17 22 18 -20 -21 -22 -23 23 -25 25 -27 -28 -29 -30 -31
leaf_value=-0.003228016438596468 -0.0095111393755742991 -0.0097168353497982043 0.0083481913623519432 -0.00039625969274263641 0.0022613941007875839 0.0057297875021543841 -0.01123401273507625 -0.0088624064263422044 -0.0077865053056961012 -0.00039679576243673058 -0.0076153416378314008 0.0080780407828050169 -0.0052857718871612306 0.0034409172185089279 0.0094112068298272799 -0.0016891087490049275 0.0067022614087909466 0.0067051321470543088 -0.0029143258610642275 -0.0099439598549383168 0.012214773099869491 0.0011540021604070298 0.0073330207484895776 -0.0058105292605857058 -0.004963287319988012 0.0040858322521671658 0.0031408612452320413 -0.0022654813596222931 -0.0030876764051970982 0.0066254016962360414
leaf_weight=72 38 25 39 57 64 23 24 20 21 35 34 56 57 23 36 22 20 46 38 33 25 26 23 30 25 32 22 138 21 61
leaf_count=72 38 25 39 57 64 23 24 20 21 35 34 56 57 23 36 22 20 46 38 33 25 26 23 30 25 32 22 138 21 61
internal_value=0 0.00016427 0.0015379 -0.00154203 -0.000562534 -0.00260378 -0.00203609 -0.00338432 0.00258147 0.00135551 5.86753e-05 0.00481849 -0.000877309 -0.00277685 0.00130708 0.00520074 -0.000188499 0.00493474 0.00235347 -0.00533874 0.00734392 0.00547052 0.00103887 9.16408e-06 0.00219155 0.00011692 -0.0023377 -0.00310054 0.00227857 0.00323358
internal_weight=0 1148 636 512 407 128 268 204 508 334 243 91 103 80 209 58 151 174 84 105 90 65 130 110 80 57 180 158 139 118
internal_count=1186 1148 636 512 407 128 268 204 508 334 243 91 103 80 209 58 151 174 84 105 90 65 130 110 80 57 180 158 139 118
shrinkage=0.05


Tree=7
num_leaves=31
num_cat=0
split_feature=9 9 10 1 1 1 1 1 10 5 2 7 9 9 10 1 10 2 1 4 1 9 2 4 0 4 0 2 2 1
split_gain=1.24304 0.971343 0.994548 0.687365 0.63308 0.553754 0.75855 0.644191 0.597994 0.58991 0.793755 0.585895 0.55845 0.458308 0.442596 0.404086 0.396943 0.368935 0.36845 0.320991 0.29289 0.35797 0.481174 0.291177 0.284617 0.260272 0.357157 0.369873 0.421847 0.595021
threshold=87.803067441827906 0.039606932813969882 2.3758776316218291 7.3035249473469781 10.146614911881509 9.4362152428809853 14.885666954071899 13.382309097086782 3.4120777285692792 0.0042920939783311022 268.37531127548681 0.002441321440012969 2.7010433758653449 72.417099925266143 2.9532626672009266 5.7131831418879129 4.2956305668905665 382.37333888036778 6.1960593422400043 0.0083776888309061662 12.69045074815377 43.568012554266325 132.72272555254858 0.00010228461369224296 68.644733735803598 0.17952493621685886 28.549990204935341 120.97847836137333 184.79369035389482 13.690295919340359
decision_type=10 10 10 2 2 2 2 2 10 2 10 2 10 10 10 2 10 10 2 2 2 10 10 2 2 2 2 8 10 2
left_child=1 3 13 18 -5 8 7 9 24 10 19 15 -8 20 -6 -10 -13 -15 -1 -7 21 -3 -23 -12 -4 26 -16 -28 -29 -30
right_child=-2 2 5 4 14 6 12 -9 11 -11 23 16 -14 17 25 -17 -18 -19 -20 -21 -22 22 -24 -25 -26 -27 27 28 29 -31
leaf_value=-0.0030666154551403854 -0.0090355823061576013 -0.0075911163017153742 0.010886651437936559 0.003580967881594246 -0.0081700227587767262 -0.0024604739054389624 -0.00037695599387266808 -0.0072345746735877851 0.0095847648600565979 0.0059484995979194842 -0.00035977796252284738 -0.0070216218009591103 0.0076741387568680305 -0.0022917480104499392 0.0034597103168526968 0.0025037147725621863 0.0016489332626489076 0.0065446201711893085 -0.0094467619709162551 -0.011010531034497988 -0.0096549867031474907 0.0055503587843850257 -0.005286129200387569 0.0070875223548639392 0.0051471535179492406 0.0025341265959044298 0.0019917858875400964 -0.00938920599098007 0.0038284820911940187 -0.0037601408103842349
leaf_weight=72 38 25 36 76 23 23 35 34 29 36 35 22 56 27 31 66 33 21 33 21 21 20 21 21 54 45 42 24 32 134
leaf_count=72 38 25 36 76 23 23 35 34 29 36 35 22 56 27 31 66 33 21 33 21 21 20 21 21 54 45 42 24 32 134
internal_value=0 0.000156057 0.001461 -0.00146493 -0.000534407 0.00248737 0.000893343 -0.0010788 0.00422087 0.000460145 -0.00151566 0.00228762 0.00457756 -0.00234796 -0.00147933 0.0046653 -0.00181929 0.00157416 -0.0050718 -0.00654118 -0.00451189 -0.00287545 -3.75005e-08 0.00243296 0.00744295 -0.000979697 -0.00158092 -0.00225445 -0.0031931 -0.00229727
internal_weight=0 1148 636 512 407 501 261 170 240 136 100 150 91 135 331 95 55 48 105 44 87 66 41 56 90 308 263 232 190 166
internal_count=1186 1148 636 512 407 501 261 170 240 136 100 150 91 135 331 95 55 48 105 44 87 66 41 56 90 308 263 232 190 166
shrinkage=0.05


Tree=8
num_leaves=31
num_cat=0
split_feature=9 9 10 1 1 9 2 7 10 1 7 7 1 9 7 9 1 10 10 0 4 1 10 3 3 3 2 2 1 2
split_gain=1.14035 0.805174 1.0697 0.620347 0.572016 0.46818 0.458551 0.503663 0.402696 0.355707 0.43851 0.428907 0.340419 0.609532 0.484582 0.361615 0.49374 0.430402 0.480432 0.432579 0.340827 0.332526 0.320009 0.297976 0.392956 0.312445 0.289617 0.427114 0.567357 0.413406
threshold=95.157903763900478 0.039606932813969882 2.2462928812355174 7.3035249473469781 10.080550375513836 57.380044325539863 1845.237631605067 0.15733689463912834 2.9532626672009266 9.7884572083369417 0.031194877277762555 0.0010421451206379475 7.7880325681600615 7.3120746294016365 0.0019048096927215814 0.19937255019676023 16.110550977843232 2.8809578884834415 4.8999614186738798 36.322804670577931 0.03040554884379789 6.1960593422400043 3.7831711771846055 0.079396019005639182 0.19509728617690994 0.74511446227241684 120.97847836137333 184.79369035389482 12.742051189568196 27.830939307511247
decision_type=10 10 10 2 2 10 10 2 10 2 2 2 2 10 2 10 2 10 10 2 2 2 10 2 2 2 8 10 2 10
left_child=1 3 5 21 -5 -3 7 12 -6 -7 11 -11 13 20 -15 -14 17 -17 23 -20 -4 -1 -8 -19 -25 -26 29 -28 -29 -10
right_child=-2 2 6 4 8 9 22 -9 26 10 -12 -13 15 14 -16 16 -18 18 19 -21 -22 -23 -24 24 25 -27 27 28 -30 -31
leaf_value=-0.0029132847695210432 -0.010919628338888288 -0.0088786851353943354 0.0059164223437373703 0.0035355869978148909 -0.00776152151596287 0.0036865845495076092 0.0026237581694579645 -0.003673479586307492 -0.0035367231629788876 -0.0038516244858563427 -0.007627192704427627 0.0054030887427784155 -0.0042741619423031811 0.0058393728868104521 -0.001493896314556279 0.0063267241165574119 0.0078871928459893059 0.0033975263498723508 -0.00019840229221660159 0.0091328882370834003 0.013473645560443401 -0.0089744238015334824 -0.0050125761012382369 -0.0067313089317670369 0.002493725712632849 -0.0049757945750440874 -0.0069399250953486469 0.0047178330004068189 -0.0019961017925391495 0.0053443489008043951
leaf_weight=72 24 25 37 72 23 27 23 28 20 31 31 21 20 50 41 42 39 30 23 27 25 33 34 33 42 21 33 38 183 38
leaf_count=72 24 25 37 72 23 27 23 28 20 31 31 21 20 50 41 42 39 30 23 27 25 33 34 33 42 21 33 38 183 38
internal_value=0 9.12927e-05 0.00125942 -0.00139168 -0.000507687 -0.00270228 0.00229792 0.00282426 -0.00137669 -0.00129855 -0.00292022 -0.000114144 0.00324737 0.00514031 0.00253537 0.00220181 0.00270578 0.00177883 0.000693535 0.00484049 0.00896369 -0.00481821 -0.00193125 -0.000952084 -0.00231134 3.88562e-06 -0.000906012 -0.00163396 -0.00084167 0.00228191
internal_weight=0 1162 650 512 407 135 515 458 335 110 83 52 430 153 91 277 257 218 176 50 62 105 57 126 96 63 312 254 221 58
internal_count=1186 1162 650 512 407 135 515 458 335 110 83 52 430 153 91 277 257 218 176 50 62 105 57 126 96 63 312 254 221 58
shrinkage=0.05


Tree=9
num_leaves=31
num_cat=0
split_feature=9 9 10 1 1 1 1 1 9 1 10 9 7 3 3 7 10 1 1 2 2 2 1 0 1 5 2 5 5 1
split_gain=1.03653 0.794565 0.806372 0.559863 0.516245 0.461796 0.645523 0.568999 0.531452 0.544858 0.531445 0.504841 0.494456 0.505619 0.4164 0.439625 0.364455 0.35272 0.300105 0.267539 0.399562 0.391772 0.568885 0.257116 0.255802 0.254589 0.470536 0.252446 0.231976 0.714591
threshold=87.803067441827906 0.039606932813969882 2.3758776316218291 7.3035249473469781 10.080550375513836 9.4362152428809853 14.885666954071899 13.382309097086782 45.869158236392572 11.001939697203136 3.4120777285692792 2.7010433758653449 0.002441321440012969 0.13923830771071596 0.45909001431984597 0.016848012783646817 3.0507551805858664 5.7131831418879129 6.1960593422400043 120.97847836137333 27.830939307511247 184.79369035389482 12.742051189568196 68.644733735803598 28.329636177031194 0.0049714182051173198 268.37531127548681 0.0017426982295112342 2.508867883017281e-05 18.916832237499523
decision_type=10 10 10 2 2 2 2 2 10 2 10 10 2 2 2 2 10 2 2 8 10 10 2 2 2 2 10 2 2 2
left_child=1 3 14 18 -5 10 7 8 25 -10 23 -8 17 -14 -3 -16 -6 -12 -1 20 -18 -21 -23 -4 28 26 -7 -13 -24 -30
right_child=-2 2 5 4 16 6 11 -9 9 -11 12 27 13 -15 15 -17 19 -19 -20 21 -22 22 24 -25 -26 -27 -28 -29 29 -31
leaf_value=-0.002767620549356151 -0.0082494843015937427 -0.0047813958469279383 0.010142045089742169 0.0033588076521280327 -0.0068779537902662049 -0.0054655277746773904 -0.00051930257119238378 -0.0068119248567039478 -0.009686062027784912 0.001716693937778473 0.0087893814747703487 0.0046333943519534333 -0.0081058093532919897 0.0018600312168044705 0.0049519662163220353 -0.0032730353318832141 -0.0033598871179856362 0.0021736802759044099 -0.0085257026225779992 -0.0065929288891228765 0.0054544492779920496 0.0049029463021135009 -0.0042298442058381625 0.0046868841978721324 0.0031571891592730855 0.0060468593019653459 0.0037770228623412549 0.011639582188799978 -0.0083191200264263899 0.0029299727544033279
leaf_weight=72 38 70 36 72 27 21 35 34 22 20 29 36 20 35 32 33 20 66 33 33 36 37 92 54 22 33 40 20 20 48
leaf_count=72 38 70 36 72 27 21 35 34 22 20 29 36 20 35 32 33 20 66 33 33 36 37 92 54 22 33 40 20 20 48
internal_value=0 0.000143982 0.00132422 -0.0013221 -0.000482302 0.0022484 0.000792738 -0.00102655 0.000419792 -0.00425618 0.00383144 0.00419141 0.00200893 -0.00176391 -0.00210552 0.000776196 -0.00130785 0.00419321 -0.0045773 -0.000819566 0.00230647 -0.00151424 -0.00074896 0.00686895 -0.00189797 0.00250906 0.000595161 0.0071356 -0.00259306 -0.000378584
internal_weight=0 1148 636 512 407 501 261 170 136 42 240 91 150 55 135 65 335 95 105 308 56 252 219 90 182 94 61 56 160 68
internal_count=1186 1148 636 512 407 501 261 170 136 42 240 91 150 55 135 65 335 95 105 308 56 252 219 90 182 94 61 56 160 68
shrinkage=0.05


Tree=10
num_leaves=31
num_cat=0
split_feature=9 0 1 9 5 1 4 1 1 4 4 10 10 2 3 0 2 0 10 1 2 9 10 0 5 1 2 10 0 0
split_gain=0.746558 0.724495 0.729258 0.57834 0.559467 0.748141 0.563822 0.560924 0.53451 0.624389 0.529818 0.497843 0.494038 0.481712 0.87473 0.808436 0.68067 0.463248 0.392388 0.527154 0.489862 0.383188 0.415042 0.378335 0.363514 0.369507 0.551344 0.542113 0.438158 0.341318
threshold=95.157903763900478 16.981996872570807 9.5051762564233773 62.077824260655973 1.0000000180025095e-35 10.808464821512219 0.00024895688993017631 25.031963341348519 21.08663227882235 1.0000000180025095e-35 0.0043654301164500692 4.1430876813929745 3.6415527962512551 291.48410351048761 0.78186165716513389 42.895273667334216 134.24431240443195 76.697549020160821 4.5680309535240253 18.084651332002533 636.33144289302368 57.056489247451822 2.6179652573099732 65.178522554271595 0.032414573048583271 7.1354375682040727 88.170168001314423 5.6682352277798715 50.123372746954111 67.338074879660937
decision_type=10 2 2 10 2 2 2 2 2 2 2 8 10 10 2 2 8 2 8 2 10 10 8 2 2 2 10 10 2 2
left_child=1 -1 3 17 5 -4 7 8 9 11 29 12 -7 16 -15 -16 -13 21 23 20 -20 22 -3 -12 25 27 -27 28 -24 -6
right_child=-2 2 4 -5 10 6 -8 -9 -10 -11 18 13 -14 14 15 -17 -18 -19 19 -21 -22 -23 24 -25 -26 26 -28 -29 -30 -31
leaf_value=-0.0079990571252822589 -0.0088414214551448822 -0.0026527605871004721 -0.007203947567696949 0.0074616066352852315 0.0053690636345376103 -0.0020737372692329467 -0.0060416640815041632 0.0080055959580931819 -0.0074815518079468834 0.0075389578083995728 -0.0041126207835721169 -0.0016250281111995985 0.0070460948923772027 0.0076350616613546241 0.0025435534650054964 -0.011025380458505381 -0.012092658072710039 -0.0037707338428222821 0.0034512977319536733 0.0059312805999070413 -0.0051079462854457759 -0.0046565545548219239 -0.0075257159769535065 0.0013228309955447912 0.0078888374177872086 0.011652877825227651 0.002822937676165667 0.0074624417252683387 0.0006643748355589891 -0.0011027366888743861
leaf_weight=26 23 35 56 45 83 27 46 20 26 25 89 41 33 26 23 21 25 38 32 46 35 20 20 50 35 22 90 24 89 27
leaf_count=26 23 35 56 45 83 27 46 20 26 25 89 41 33 26 23 21 25 38 32 46 35 20 20 50 35 22 90 24 89 27
internal_value=0 0.000254516 0.000441281 0.00210708 -0.000511252 -0.00188131 -0.000929019 -4.81892e-05 -0.000700318 9.74747e-05 0.000885301 -0.000851694 0.00294217 -0.00252546 0.000364005 -0.00393253 -0.00559004 0.00146109 -0.00037849 0.00180976 -0.00101995 0.00205455 0.00248065 -0.00215742 0.00312232 0.00244139 0.00455739 0.000659501 -0.000838394 0.00378053
internal_weight=0 1175 1149 418 731 369 313 267 247 221 362 196 60 136 70 44 66 373 252 113 67 335 315 139 280 245 112 133 109 110
internal_count=1198 1175 1149 418 731 369 313 267 247 221 362 196 60 136 70 44 66 373 252 113 67 335 315 139 280 245 112 133 109 110
shrinkage=0.05


end of trees

feature_importances:
intra_cloud_annual=66
elevation=52
direct_normal_irradiation=50
var_snow_lt_p90=41
forest_prob=32
mean_cloud_annual=25
sveg_prob=25
snow_prob=20
cropland_prob=18
builup_prob=1

parameters:
[boosting: gbdt]
[objective: regression]
[metric: l1,l2]
[tree_learner: serial]
[device_type: cpu]
[data: ]
[valid: ]
[num_iterations: 100]
[learning_rate: 0.05]
[num_leaves: 31]
[num_threads: 0]
[force_col_wise: 0]
[force_row_wise: 0]
[histogram_pool_size: -1]
[max_depth: -1]
[min_data_in_leaf: 20]
[min_sum_hessian_in_leaf: 0.001]
[bagging_fraction: 0.8]
[pos_bagging_fraction: 1]
[neg_bagging_fraction: 1]
[bagging_freq: 5]
[bagging_seed: 1216]
[feature_fraction: 0.9]
[feature_fraction_bynode: 1]
[feature_fraction_seed: 16704]
[extra_trees: 0]
[extra_seed: 11254]
[early_stopping_round: 0]
[first_metric_only: 0]
[max_delta_step: 0]
[lambda_l1: 0]
[lambda_l2: 0]
[min_gain_to_split: 0]
[drop_rate: 0.1]
[max_drop: 50]
[skip_drop: 0.5]
[xgboost_dart_mode: 0]
[uniform_drop: 0]
[drop_seed: 5415]
[top_rate: 0.2]
[other_rate: 0.1]
[min_data_per_group: 100]
[max_cat_threshold: 32]
[cat_l2: 10]
[cat_smooth: 10]
[max_cat_to_onehot: 4]
[top_k: 20]
[monotone_constraints: ]
[monotone_constraints_method: basic]
[monotone_penalty: 0]
[feature_contri: ]
[forcedsplits_filename: ]
[refit_decay_rate: 0.9]
[cegb_tradeoff: 1]
[cegb_penalty_split: 0]
[cegb_penalty_feature_lazy: ]
[cegb_penalty_feature_coupled: ]
[path_smooth: 0]
[interaction_constraints: ]
[verbosity: 0]
[saved_feature_importance_type: 0]
[max_bin: 255]
[max_bin_by_feature: ]
[min_data_in_bin: 3]
[bin_construct_sample_cnt: 200000]
[data_random_seed: 365]
[is_enable_sparse: 1]
[enable_bundle: 1]
[use_missing: 1]
[zero_as_missing: 0]
[feature_pre_filter: 1]
[pre_partition: 0]
[two_round: 0]
[header: 0]
[label_column: ]
[weight_column: ]
[group_column: ]
[ignore_column: ]
[categorical_feature: ]
[forcedbins_filename: ]
[objective_seed: 24504]
[num_class: 1]
[is_unbalance: 0]
[scale_pos_weight: 1]
[sigmoid: 1]
[boost_from_average: 1]
[reg_sqrt: 0]
[alpha: 0.9]
[fair_c: 1]
[poisson_max_delta_step: 0.7]
[tweedie_variance_power: 1.5]
[lambdarank_truncation_level: 20]
[lambdarank_norm: 1]
[label_gain: ]
[eval_at: ]
[multi_error_top_k: 1]
[auc_mu_weights: ]
[num_machines: 1]
[local_listen_port: 12400]
[time_out: 120]
[machine_list_filename: ]
[machines: ]
[gpu_platform_id: -1]
[gpu_device_id: -1]
[gpu_use_dp: 0]

end of parameters

pandas_categorical:[]
